-0.6724214283742626,
-1.9430600335500723,
-1.4537430773944324,
-12.409806502270794,
-1.9368267605439078,
-1.9599960691710825,
-1.9461767320326473,
3.934541040562549,
-1.2222451206391758,
-0.9630584590901402,
102.59887277747433,
4.432446602474962,
-2.2122960076324327,
-1.7659095356091097,
-0.773423803098307,
-1.4423940385603098,
-6.89743301180424,
-1.4272831250553035,
-1.4980913654838492,
-1.985894360754381,
-1.1645559854951824,
-1.969758204925935,
-1.487350595771508,
-2.135948039834719,
-2.1739692397601895,
-1.4925447753465617,
-1.0773332733265126,
-1.2802956535646381,
-2.8247393235375235,
-0.5645106756878427,
3.677888860445835,
-2.4021798613100436,
1.1090232823124642,
-1.0248205262646681,
-0.2301304751502085,
1.6584264557103556,
-1.0061209187100382,
-1.0756275681989422,
-1.0341701785577804,
-3.0405719468388193,
0.2954168265164038,
1.060931047876425,
-21.51157778822104,
-2.3630922400032204,
0.42636564012794104,
-0.7819229489351334,
-0.41559543420100536,
0.48894902090593134,
5.098928130357301,
-0.19018646717920737,
-0.3072302223379524,
-1.153322677584472,
0.25378451989283185,
-1.1049145782128462,
-0.3026337358573955,
-1.429425835481334,
-1.4963629266566676,
-0.3015071728606857,
0.42605541118721146,
0.06570378814235239,
0.7359642484053938,
0.5918210683955514,
-0.8698747688712334,
-0.362299056677842,
0.8116603097974496,
0.1973101978517433,
0.25022865810908124,
0.8552918923179961,
0.6931104114054359,
0.7898452535358333,
0.41153082168207983,
-0.03806503832513719,
-0.19680070706521946,
1.4828554769778926,
0.2361654381731035,
-0.02424545856025768,
0.3203807406428799,
0.07853145758406936,
-0.05372417529550545,
-0.7206498810015904,
0.14592191689745557,
0.22255076120633183,
0.5118208621765543,
-0.08026556216485073,
0.6247706286797324,
0.1319731310582234,
0.5057921898410888,
0.5223728552606929,
0.19586045753056305,
-0.006110153783777444,
0.06441573094645721,
-0.05037471944079359,
-0.11109389382521917,
0.04541916110859422,
-0.04610831417023671,
-0.9924128847137084,
0.9858734599303424,
18.743234868648006,
-0.7643499713488431,
-1.0968780684886348,
-1.0601018401928832,
-3.6743765065114524,
-0.6624405821497403,
-0.39260451635324384,
-24.289092785783392,
-2.5117758022792334,
0.8295729976009855,
-2.784310954872872,
-0.3009600139915821,
-1.4991851545674268,
-0.22969629282156642,
0.9496331983232968,
0.9743698016833976,
-2.4643526299798273,
-3.3381853621129896,
-2.302423058023235,
-2.3384753566676566,
-2.435635300825655,
0.05641773727947244,
1.1141452034844048,
1.3760751230390598,
0.8177738437940127,
2.2662297685444757,
-0.8418940402259568,
-4.914357520850375,
0.40612325882149547,
-0.3314401949040596,
0.07227942622833758,
-26.86179252438976,
-0.2822326251791241,
-0.3605046669943654,
-0.3469676000985986,
6.777919480989187,
0.07723849676068305,
0.2978802865364712,
-88.77838191515498,
7.212957264140174,
0.9039862188867701,
-0.6932435748949276,
2.864085088766929,
0.185677059425748,
-8.201718573242298,
0.08017417111305354,
0.05733765335287038,
-0.7739877554496061,
-0.31484035235626034,
-0.6932581870852111,
-0.3249477088378187,
-0.927622505887025,
-0.028589654482275052,
0.06141800780961062,
0.07240840799860075,
0.13357491386696224,
1.478764302599862,
-0.47142916440534116,
6.670044651240178,
