0.8731398431216993,
-0.14286968893052046,
0.4430960266833558,
2.1193193870959677,
-0.1412951376968397,
-0.23912353109948173,
-0.21633400854553275,
0.09678606781836559,
-0.2829758957587293,
0.6961217144797583,
-0.3707629032274275,
-0.3873824850954913,
-0.5797223298027974,
-0.9393681636298492,
-0.3818315089312226,
-0.9738204513547531,
0.5191132897535746,
-0.24899668535756714,
1.093580559468814,
-0.25027672392613465,
-0.39079783397368345,
-0.2091208316004945,
0.45123936992363733,
-0.11940321883461165,
-0.31071259727047845,
-0.9748937844645522,
-0.05932091356060486,
-0.32068877141606594,
0.03066798818466287,
-0.058594614391685354,
2.1410818376309138,
-0.36021608612533074,
-0.5190146164612542,
0.29182310546049955,
-0.03328914198012775,
-0.3504878419343923,
0.2965467591616551,
0.0030615789517693917,
0.07143014661248942,
-0.029863792807440313,
0.015023275728605479,
-0.09242138810767914,
0.04554714753992214,
0.03638208447197596,
0.08794092095779989,
0.28928553259074724,
0.04948841181827064,
0.12194473883034351,
-0.0593248617232021,
0.13397757511019254,
-0.19405548026789698,
-0.030397999527633487,
-0.0245544420916419,
0.09306967744963637,
-0.11305105156033682,
0.04596220744493935,
0.04582663522728091,
0.28693927790475715,
0.07462147744703641,
0.034318950255577504,
0.06606043787129112,
-0.014115100194324055,
-0.21456998621541715,
